<?xml version="1.0"?>
<opencv_storage>
<cascade>
  <stageType>BOOST</stageType>
  <featureType>HAAR</featureType>
  <height>20</height>
  <width>20</width>
  <stageParams>
    <boostType>GAB</boostType>
    <minHitRate>9.9500000476837158e-01</minHitRate>
    <maxFalseAlarm>5.0000000000000000e-01</maxFalseAlarm>
    <weightTrimRate>9.4999999999999996e-01</weightTrimRate>
    <maxDepth>1</maxDepth>
    <maxWeakCount>100</maxWeakCount></stageParams>
  <featureParams>
    <maxCatCount>0</maxCatCount>
    <featSize>1</featSize>
    <mode>BASIC</mode></featureParams>
  <stageNum>10</stageNum>
  <stages>
    <!-- stage 0 -->
    <_>
      <maxWeakCount>2</maxWeakCount>
      <stageThreshold>-1.4533796906471252e-01</stageThreshold>
      <weakClassifiers>
        <_>
          <internalNodes>
            0 -1 35 4.5547512127086520e-04</internalNodes>
          <leafValues>
            -8.9999997615814209e-01 8.3999997377395630e-01</leafValues></_>
        <_>
          <internalNodes>
            0 -1 23 6.9172880612313747e-03</internalNodes>
          <leafValues>
            -8.0294615030288696e-01 7.5466203689575195e-01</leafValues></_></weakClassifiers></_>
    <!-- stage 1 -->
    <_>
      <maxWeakCount>3</maxWeakCount>
      <stageThreshold>-7.0548206567764282e-01</stageThreshold>
      <weakClassifiers>
        <_>
          <internalNodes>
            0 -1 28 2.9302383773028851e-03</internalNodes>
          <leafValues>
            -7.5221240520477295e-01 8.5635358095169067e-01</leafValues></_>
        <_>
          <internalNodes>
            0 -1 19 6.8583920598030090e-02</internalNodes>
          <leafValues>
            -6.9190919399261475e-01 8.2818228006362915e-01</leafValues></_>
        <_>
          <internalNodes>
            0 -1 22 -5.4791881702840328e-03</internalNodes>
          <leafValues>
            7.3863953351974487e-01 -5.7539385557174683e-01</leafValues></_></weakClassifiers></_>
    <!-- stage 2 -->
    <_>
      <maxWeakCount>4</maxWeakCount>
      <stageThreshold>1.6186350584030151e-01</stageThreshold>
      <weakClassifiers>
        <_>
          <internalNodes>
            0 -1 18 6.8513685837388039e-03</internalNodes>
          <leafValues>
            -8.0821919441223145e-01 7.0646768808364868e-01</leafValues></_>
        <_>
          <internalNodes>
            0 -1 41 2.8076046146452427e-03</internalNodes>
          <leafValues>
            -4.4856703281402588e-01 8.8104146718978882e-01</leafValues></_>
        <_>
          <internalNodes>
            0 -1 31 6.1838021501898766e-03</internalNodes>
          <leafValues>
            -7.1428406238555908e-01 6.7387276887893677e-01</leafValues></_>
        <_>
          <internalNodes>
            0 -1 43 -6.6012111492455006e-03</internalNodes>
          <leafValues>
            8.0332529544830322e-01 -5.9437018632888794e-01</leafValues></_></weakClassifiers></_>
    <!-- stage 3 -->
    <_>
      <maxWeakCount>3</maxWeakCount>
      <stageThreshold>-3.0783352255821228e-01</stageThreshold>
      <weakClassifiers>
        <_>
          <internalNodes>
            0 -1 15 9.1574072837829590e-02</internalNodes>
          <leafValues>
            -2.6136362552642822e-01 9.0635448694229126e-01</leafValues></_>
        <_>
          <internalNodes>
            0 -1 35 4.8266054363921285e-04</internalNodes>
          <leafValues>
            -8.7899500131607056e-01 5.1719635725021362e-01</leafValues></_>
        <_>
          <internalNodes>
            0 -1 14 -3.3330608159303665e-02</internalNodes>
          <leafValues>
            6.7966824769973755e-01 -5.6366622447967529e-01</leafValues></_></weakClassifiers></_>
    <!-- stage 4 -->
    <_>
      <maxWeakCount>5</maxWeakCount>
      <stageThreshold>-5.0561517477035522e-01</stageThreshold>
      <weakClassifiers>
        <_>
          <internalNodes>
            0 -1 25 1.2316507287323475e-02</internalNodes>
          <leafValues>
            -4.3548387289047241e-01 7.9487180709838867e-01</leafValues></_>
        <_>
          <internalNodes>
            0 -1 0 -1.0651768185198307e-02</internalNodes>
          <leafValues>
            7.2343909740447998e-01 -4.8652693629264832e-01</leafValues></_>
        <_>
          <internalNodes>
            0 -1 32 4.4194376096129417e-04</internalNodes>
          <leafValues>
            -8.3332490921020508e-01 4.4437998533248901e-01</leafValues></_>
        <_>
          <internalNodes>
            0 -1 2 4.2364005930721760e-03</internalNodes>
          <leafValues>
            -5.4774451255798340e-01 7.0691329240798950e-01</leafValues></_>
        <_>
          <internalNodes>
            0 -1 37 1.2691607698798180e-03</internalNodes>
          <leafValues>
            -6.0610425472259521e-01 5.8749902248382568e-01</leafValues></_></weakClassifiers></_>
    <!-- stage 5 -->
    <_>
      <maxWeakCount>7</maxWeakCount>
      <stageThreshold>-4.7256258130073547e-01</stageThreshold>
      <weakClassifiers>
        <_>
          <internalNodes>
            0 -1 12 8.5540972650051117e-02</internalNodes>
          <leafValues>
            -1.5217390656471252e-01 8.6941581964492798e-01</leafValues></_>
        <_>
          <internalNodes>
            0 -1 21 -2.5369379669427872e-02</internalNodes>
          <leafValues>
            6.9106233119964600e-01 -3.9521446824073792e-01</leafValues></_>
        <_>
          <internalNodes>
            0 -1 28 3.1772523652762175e-03</internalNodes>
          <leafValues>
            -8.5552370548248291e-01 4.2417386174201965e-01</leafValues></_>
        <_>
          <internalNodes>
            0 -1 1 7.5288838706910610e-03</internalNodes>
          <leafValues>
            -4.3419864773750305e-01 7.6790767908096313e-01</leafValues></_>
        <_>
          <internalNodes>
            0 -1 29 -5.8833748335018754e-04</internalNodes>
          <leafValues>
            -8.7167793512344360e-01 3.2322067022323608e-01</leafValues></_>
        <_>
          <internalNodes>
            0 -1 8 -3.6252610385417938e-02</internalNodes>
          <leafValues>
            9.5162248611450195e-01 -3.8701120018959045e-01</leafValues></_>
        <_>
          <internalNodes>
            0 -1 30 2.2035557776689529e-03</internalNodes>
          <leafValues>
            4.0626096725463867e-01 -9.3763571977615356e-01</leafValues></_></weakClassifiers></_>
    <!-- stage 6 -->
    <_>
      <maxWeakCount>6</maxWeakCount>
      <stageThreshold>-6.2218490988016129e-02</stageThreshold>
      <weakClassifiers>
        <_>
          <internalNodes>
            0 -1 16 1.0275483131408691e-01</internalNodes>
          <leafValues>
            -1.8181818723678589e-01 8.5953176021575928e-01</leafValues></_>
        <_>
          <internalNodes>
            0 -1 9 -2.1466070320457220e-03</internalNodes>
          <leafValues>
            7.0426130294799805e-01 -4.9029281735420227e-01</leafValues></_>
        <_>
          <internalNodes>
            0 -1 39 1.3877749443054199e-02</internalNodes>
          <leafValues>
            -4.7394618391990662e-01 6.7670065164566040e-01</leafValues></_>
        <_>
          <internalNodes>
            0 -1 40 -1.3818175531923771e-02</internalNodes>
          <leafValues>
            8.5809701681137085e-01 -3.2008177042007446e-01</leafValues></_>
        <_>
          <internalNodes>
            0 -1 13 9.3795061111450195e-03</internalNodes>
          <leafValues>
            -3.9562562108039856e-01 7.1340763568878174e-01</leafValues></_>
        <_>
          <internalNodes>
            0 -1 44 -2.8446409851312637e-03</internalNodes>
          <leafValues>
            8.4102308750152588e-01 -3.5083714127540588e-01</leafValues></_></weakClassifiers></_>
    <!-- stage 7 -->
    <_>
      <maxWeakCount>6</maxWeakCount>
      <stageThreshold>-6.4338803291320801e-01</stageThreshold>
      <weakClassifiers>
        <_>
          <internalNodes>
            0 -1 36 -2.2512951400130987e-03</internalNodes>
          <leafValues>
            8.2278478145599365e-01 -2.2012577950954437e-01</leafValues></_>
        <_>
          <internalNodes>
            0 -1 34 -1.2971807736903429e-03</internalNodes>
          <leafValues>
            -4.9896788597106934e-01 5.9359753131866455e-01</leafValues></_>
        <_>
          <internalNodes>
            0 -1 5 5.6056141853332520e-02</internalNodes>
          <leafValues>
            -2.8769120573997498e-01 9.0176564455032349e-01</leafValues></_>
        <_>
          <internalNodes>
            0 -1 38 -2.9393319040536880e-02</internalNodes>
          <leafValues>
            6.7612409591674805e-01 -3.7401258945465088e-01</leafValues></_>
        <_>
          <internalNodes>
            0 -1 24 -5.0666864262893796e-04</internalNodes>
          <leafValues>
            -8.9635026454925537e-01 3.6292198300361633e-01</leafValues></_>
        <_>
          <internalNodes>
            0 -1 24 2.0436616614460945e-04</internalNodes>
          <leafValues>
            3.7448745965957642e-01 -6.9427359104156494e-01</leafValues></_></weakClassifiers></_>
    <!-- stage 8 -->
    <_>
      <maxWeakCount>8</maxWeakCount>
      <stageThreshold>-4.6924957633018494e-01</stageThreshold>
      <weakClassifiers>
        <_>
          <internalNodes>
            0 -1 11 2.8246189467608929e-03</internalNodes>
          <leafValues>
            -3.3333334326744080e-01 7.2853183746337891e-01</leafValues></_>
        <_>
          <internalNodes>
            0 -1 33 5.2337103988975286e-04</internalNodes>
          <leafValues>
            4.6506765484809875e-01 -6.4322614669799805e-01</leafValues></_>
        <_>
          <internalNodes>
            0 -1 26 1.0552202584221959e-03</internalNodes>
          <leafValues>
            -4.8744520545005798e-01 5.7914817333221436e-01</leafValues></_>
        <_>
          <internalNodes>
            0 -1 3 5.4144887253642082e-03</internalNodes>
          <leafValues>
            -3.2663249969482422e-01 8.1383615732192993e-01</leafValues></_>
        <_>
          <internalNodes>
            0 -1 29 -6.7747570574283600e-04</internalNodes>
          <leafValues>
            -8.5752540826797485e-01 3.3661633729934692e-01</leafValues></_>
        <_>
          <internalNodes>
            0 -1 7 3.3560674637556076e-02</internalNodes>
          <leafValues>
            -4.2827790975570679e-01 7.2251796722412109e-01</leafValues></_>
        <_>
          <internalNodes>
            0 -1 4 4.3252157047390938e-03</internalNodes>
          <leafValues>
            -3.4744447469711304e-01 7.2837913036346436e-01</leafValues></_>
        <_>
          <internalNodes>
            0 -1 42 -1.4256471768021584e-02</internalNodes>
          <leafValues>
            6.9862854480743408e-01 -3.4777808189392090e-01</leafValues></_></weakClassifiers></_>
    <!-- stage 9 -->
    <_>
      <maxWeakCount>5</maxWeakCount>
      <stageThreshold>-4.6965399384498596e-01</stageThreshold>
      <weakClassifiers>
        <_>
          <internalNodes>
            0 -1 10 1.0598767548799515e-02</internalNodes>
          <leafValues>
            -7.7720209956169128e-02 8.5106384754180908e-01</leafValues></_>
        <_>
          <internalNodes>
            0 -1 6 -3.8980101235210896e-03</internalNodes>
          <leafValues>
            6.3626569509506226e-01 -3.6757940053939819e-01</leafValues></_>
        <_>
          <internalNodes>
            0 -1 27 1.0308701545000076e-02</internalNodes>
          <leafValues>
            -4.4818967580795288e-01 5.0579434633255005e-01</leafValues></_>
        <_>
          <internalNodes>
            0 -1 17 -1.1686795204877853e-01</internalNodes>
          <leafValues>
            -9.8731380701065063e-01 2.6971709728240967e-01</leafValues></_>
        <_>
          <internalNodes>
            0 -1 20 3.1630559824407101e-03</internalNodes>
          <leafValues>
            2.9348394274711609e-01 -8.4972691535949707e-01</leafValues></_></weakClassifiers></_></stages>
  <features>
    <_>
      <rects>
        <_>
          0 2 6 10 -1.</_>
        <_>
          0 2 3 5 2.</_>
        <_>
          3 7 3 5 2.</_></rects>
      <tilted>0</tilted></_>
    <_>
      <rects>
        <_>
          0 8 2 5 -1.</_>
        <_>
          1 8 1 5 2.</_></rects>
      <tilted>0</tilted></_>
    <_>
      <rects>
        <_>
          0 8 3 5 -1.</_>
        <_>
          1 8 1 5 3.</_></rects>
      <tilted>0</tilted></_>
    <_>
      <rects>
        <_>
          0 9 2 2 -1.</_>
        <_>
          1 9 1 2 2.</_></rects>
      <tilted>0</tilted></_>
    <_>
      <rects>
        <_>
          0 13 6 2 -1.</_>
        <_>
          0 13 3 1 2.</_>
        <_>
          3 14 3 1 2.</_></rects>
      <tilted>0</tilted></_>
    <_>
      <rects>
        <_>
          2 4 16 4 -1.</_>
        <_>
          2 4 8 2 2.</_>
        <_>
          10 6 8 2 2.</_></rects>
      <tilted>0</tilted></_>
    <_>
      <rects>
        <_>
          2 5 2 9 -1.</_>
        <_>
          3 5 1 9 2.</_></rects>
      <tilted>0</tilted></_>
    <_>
      <rects>
        <_>
          3 4 12 4 -1.</_>
        <_>
          3 4 6 2 2.</_>
        <_>
          9 6 6 2 2.</_></rects>
      <tilted>0</tilted></_>
    <_>
      <rects>
        <_>
          3 4 7 4 -1.</_>
        <_>
          3 6 7 2 2.</_></rects>
      <tilted>0</tilted></_>
    <_>
      <rects>
        <_>
          3 15 6 2 -1.</_>
        <_>
          3 16 6 1 2.</_></rects>
      <tilted>0</tilted></_>
    <_>
      <rects>
        <_>
          4 2 11 2 -1.</_>
        <_>
          4 3 11 1 2.</_></rects>
      <tilted>0</tilted></_>
    <_>
      <rects>
        <_>
          4 10 12 1 -1.</_>
        <_>
          8 10 4 1 3.</_></rects>
      <tilted>0</tilted></_>
    <_>
      <rects>
        <_>
          5 0 11 9 -1.</_>
        <_>
          5 3 11 3 3.</_></rects>
      <tilted>0</tilted></_>
    <_>
      <rects>
        <_>
          5 13 2 6 -1.</_>
        <_>
          5 15 2 2 3.</_></rects>
      <tilted>0</tilted></_>
    <_>
      <rects>
        <_>
          5 15 13 4 -1.</_>
        <_>
          5 17 13 2 2.</_></rects>
      <tilted>0</tilted></_>
    <_>
      <rects>
        <_>
          6 1 9 9 -1.</_>
        <_>
          6 4 9 3 3.</_></rects>
      <tilted>0</tilted></_>
    <_>
      <rects>
        <_>
          6 1 10 9 -1.</_>
        <_>
          6 4 10 3 3.</_></rects>
      <tilted>0</tilted></_>
    <_>
      <rects>
        <_>
          6 3 9 14 -1.</_>
        <_>
          6 10 9 7 2.</_></rects>
      <tilted>0</tilted></_>
    <_>
      <rects>
        <_>
          6 4 9 4 -1.</_>
        <_>
          9 4 3 4 3.</_></rects>
      <tilted>0</tilted></_>
    <_>
      <rects>
        <_>
          7 0 7 12 -1.</_>
        <_>
          7 4 7 4 3.</_></rects>
      <tilted>0</tilted></_>
    <_>
      <rects>
        <_>
          7 3 5 12 -1.</_>
        <_>
          7 9 5 6 2.</_></rects>
      <tilted>0</tilted></_>
    <_>
      <rects>
        <_>
          7 15 10 4 -1.</_>
        <_>
          7 17 10 2 2.</_></rects>
      <tilted>0</tilted></_>
    <_>
      <rects>
        <_>
          7 16 11 2 -1.</_>
        <_>
          7 17 11 1 2.</_></rects>
      <tilted>0</tilted></_>
    <_>
      <rects>
        <_>
          8 2 6 11 -1.</_>
        <_>
          10 2 2 11 3.</_></rects>
      <tilted>0</tilted></_>
    <_>
      <rects>
        <_>
          8 4 3 1 -1.</_>
        <_>
          9 4 1 1 3.</_></rects>
      <tilted>0</tilted></_>
    <_>
      <rects>
        <_>
          8 6 6 6 -1.</_>
        <_>
          10 6 2 6 3.</_></rects>
      <tilted>0</tilted></_>
    <_>
      <rects>
        <_>
          8 10 2 1 -1.</_>
        <_>
          9 10 1 1 2.</_></rects>
      <tilted>0</tilted></_>
    <_>
      <rects>
        <_>
          8 10 6 4 -1.</_>
        <_>
          10 10 2 4 3.</_></rects>
      <tilted>0</tilted></_>
    <_>
      <rects>
        <_>
          8 11 2 4 -1.</_>
        <_>
          8 13 2 2 2.</_></rects>
      <tilted>0</tilted></_>
    <_>
      <rects>
        <_>
          9 4 3 1 -1.</_>
        <_>
          10 4 1 1 3.</_></rects>
      <tilted>0</tilted></_>
    <_>
      <rects>
        <_>
          9 4 3 2 -1.</_>
        <_>
          10 4 1 2 3.</_></rects>
      <tilted>0</tilted></_>
    <_>
      <rects>
        <_>
          9 12 4 4 -1.</_>
        <_>
          9 14 4 2 2.</_></rects>
      <tilted>0</tilted></_>
    <_>
      <rects>
        <_>
          9 13 2 3 -1.</_>
        <_>
          9 14 2 1 3.</_></rects>
      <tilted>0</tilted></_>
    <_>
      <rects>
        <_>
          9 14 2 2 -1.</_>
        <_>
          9 15 2 1 2.</_></rects>
      <tilted>0</tilted></_>
    <_>
      <rects>
        <_>
          10 3 2 3 -1.</_>
        <_>
          10 4 2 1 3.</_></rects>
      <tilted>0</tilted></_>
    <_>
      <rects>
        <_>
          10 4 1 2 -1.</_>
        <_>
          10 5 1 1 2.</_></rects>
      <tilted>0</tilted></_>
    <_>
      <rects>
        <_>
          10 10 4 1 -1.</_>
        <_>
          12 10 2 1 2.</_></rects>
      <tilted>0</tilted></_>
    <_>
      <rects>
        <_>
          12 3 2 2 -1.</_>
        <_>
          12 4 2 1 2.</_></rects>
      <tilted>0</tilted></_>
    <_>
      <rects>
        <_>
          13 3 4 6 -1.</_>
        <_>
          13 6 4 3 2.</_></rects>
      <tilted>0</tilted></_>
    <_>
      <rects>
        <_>
          14 5 6 6 -1.</_>
        <_>
          14 5 3 3 2.</_>
        <_>
          17 8 3 3 2.</_></rects>
      <tilted>0</tilted></_>
    <_>
      <rects>
        <_>
          14 13 6 4 -1.</_>
        <_>
          14 13 3 2 2.</_>
        <_>
          17 15 3 2 2.</_></rects>
      <tilted>0</tilted></_>
    <_>
      <rects>
        <_>
          16 8 2 4 -1.</_>
        <_>
          17 8 1 4 2.</_></rects>
      <tilted>0</tilted></_>
    <_>
      <rects>
        <_>
          18 5 2 8 -1.</_>
        <_>
          19 5 1 8 2.</_></rects>
      <tilted>0</tilted></_>
    <_>
      <rects>
        <_>
          18 5 2 11 -1.</_>
        <_>
          19 5 1 11 2.</_></rects>
      <tilted>0</tilted></_>
    <_>
      <rects>
        <_>
          18 10 2 1 -1.</_>
        <_>
          19 10 1 1 2.</_></rects>
      <tilted>0</tilted></_></features></cascade>
</opencv_storage>
